digraph Tree {
node [shape=box, style="filled, rounded", color="black", fontname="helvetica"] ;
edge [fontname="helvetica"] ;
0 [label=<BN &le; 2.475<br/>entropy = 0.931<br/>samples = 669<br/>value = [437, 232]<br/>class = Benign>, fillcolor="#f3c4a2"] ;
1 [label=<SECSize &le; 4.316<br/>entropy = 0.329<br/>samples = 430<br/>value = [404, 26]<br/>class = Benign>, fillcolor="#e78946"] ;
0 -> 1 [labeldistance=2.5, labelangle=45, headlabel="True"] ;
2 [label=<NN &le; 6.832<br/>entropy = 0.14<br/>samples = 404<br/>value = [396, 8]<br/>class = Benign>, fillcolor="#e6843d"] ;
1 -> 2 ;
3 [label=<UCSize &le; 1.566<br/>entropy = 0.081<br/>samples = 399<br/>value = [395, 4]<br/>class = Benign>, fillcolor="#e5823b"] ;
2 -> 3 ;
4 [label=<entropy = 0.0<br/>samples = 343<br/>value = [343, 0]<br/>class = Benign>, fillcolor="#e58139"] ;
3 -> 4 ;
5 [label=<UCSize &le; 2.179<br/>entropy = 0.371<br/>samples = 56<br/>value = [52, 4]<br/>class = Benign>, fillcolor="#e78b48"] ;
3 -> 5 ;
6 [label=<entropy = 0.0<br/>samples = 32<br/>value = [32, 0]<br/>class = Benign>, fillcolor="#e58139"] ;
5 -> 6 ;
7 [label=<BC &le; 3.941<br/>entropy = 0.65<br/>samples = 24<br/>value = [20, 4]<br/>class = Benign>, fillcolor="#ea9a61"] ;
5 -> 7 ;
8 [label=<entropy = 0.0<br/>samples = 16<br/>value = [16, 0]<br/>class = Benign>, fillcolor="#e58139"] ;
7 -> 8 ;
9 [label=<CT &le; 2.959<br/>entropy = 1.0<br/>samples = 8<br/>value = [4, 4]<br/>class = Benign>, fillcolor="#ffffff"] ;
7 -> 9 ;
10 [label=<entropy = 0.0<br/>samples = 2<br/>value = [2, 0]<br/>class = Benign>, fillcolor="#e58139"] ;
9 -> 10 ;
11 [label=<CT &le; 8.683<br/>entropy = 0.918<br/>samples = 6<br/>value = [2, 4]<br/>class = Malignant>, fillcolor="#9ccef2"] ;
9 -> 11 ;
12 [label=<entropy = 1.0<br/>samples = 4<br/>value = [2, 2]<br/>class = Benign>, fillcolor="#ffffff"] ;
11 -> 12 ;
13 [label=<entropy = 0.0<br/>samples = 2<br/>value = [0, 2]<br/>class = Malignant>, fillcolor="#399de5"] ;
11 -> 13 ;
14 [label=<UCShape &le; 4.068<br/>entropy = 0.722<br/>samples = 5<br/>value = [1, 4]<br/>class = Malignant>, fillcolor="#6ab6ec"] ;
2 -> 14 ;
15 [label=<entropy = 0.0<br/>samples = 1<br/>value = [1, 0]<br/>class = Benign>, fillcolor="#e58139"] ;
14 -> 15 ;
16 [label=<entropy = 0.0<br/>samples = 4<br/>value = [0, 4]<br/>class = Malignant>, fillcolor="#399de5"] ;
14 -> 16 ;
17 [label=<UCShape &le; 1.832<br/>entropy = 0.89<br/>samples = 26<br/>value = [8, 18]<br/>class = Malignant>, fillcolor="#91c9f1"] ;
1 -> 17 ;
18 [label=<entropy = 0.0<br/>samples = 5<br/>value = [5, 0]<br/>class = Benign>, fillcolor="#e58139"] ;
17 -> 18 ;
19 [label=<CT &le; 6.162<br/>entropy = 0.592<br/>samples = 21<br/>value = [3, 18]<br/>class = Malignant>, fillcolor="#5aade9"] ;
17 -> 19 ;
20 [label=<BN &le; 0.266<br/>entropy = 0.845<br/>samples = 11<br/>value = [3, 8]<br/>class = Malignant>, fillcolor="#83c2ef"] ;
19 -> 20 ;
21 [label=<entropy = 0.0<br/>samples = 2<br/>value = [2, 0]<br/>class = Benign>, fillcolor="#e58139"] ;
20 -> 21 ;
22 [label=<UCSize &le; 4.758<br/>entropy = 0.503<br/>samples = 9<br/>value = [1, 8]<br/>class = Malignant>, fillcolor="#52a9e8"] ;
20 -> 22 ;
23 [label=<SECSize &le; 7.697<br/>entropy = 0.918<br/>samples = 3<br/>value = [1, 2]<br/>class = Malignant>, fillcolor="#9ccef2"] ;
22 -> 23 ;
24 [label=<entropy = 0.0<br/>samples = 2<br/>value = [0, 2]<br/>class = Malignant>, fillcolor="#399de5"] ;
23 -> 24 ;
25 [label=<entropy = 0.0<br/>samples = 1<br/>value = [1, 0]<br/>class = Benign>, fillcolor="#e58139"] ;
23 -> 25 ;
26 [label=<entropy = 0.0<br/>samples = 6<br/>value = [0, 6]<br/>class = Malignant>, fillcolor="#399de5"] ;
22 -> 26 ;
27 [label=<entropy = 0.0<br/>samples = 10<br/>value = [0, 10]<br/>class = Malignant>, fillcolor="#399de5"] ;
19 -> 27 ;
28 [label=<UCSize &le; 4.944<br/>entropy = 0.579<br/>samples = 239<br/>value = [33, 206]<br/>class = Malignant>, fillcolor="#59ade9"] ;
0 -> 28 [labeldistance=2.5, labelangle=-45, headlabel="False"] ;
29 [label=<UCShape &le; 1.704<br/>entropy = 0.936<br/>samples = 88<br/>value = [31, 57]<br/>class = Malignant>, fillcolor="#a5d2f3"] ;
28 -> 29 ;
30 [label=<NN &le; 2.112<br/>entropy = 0.485<br/>samples = 19<br/>value = [17, 2]<br/>class = Benign>, fillcolor="#e89050"] ;
29 -> 30 ;
31 [label=<CT &le; 3.706<br/>entropy = 0.31<br/>samples = 18<br/>value = [17, 1]<br/>class = Benign>, fillcolor="#e78845"] ;
30 -> 31 ;
32 [label=<entropy = 0.0<br/>samples = 15<br/>value = [15, 0]<br/>class = Benign>, fillcolor="#e58139"] ;
31 -> 32 ;
33 [label=<SECSize &le; 1.923<br/>entropy = 0.918<br/>samples = 3<br/>value = [2, 1]<br/>class = Benign>, fillcolor="#f2c09c"] ;
31 -> 33 ;
34 [label=<entropy = 0.0<br/>samples = 1<br/>value = [0, 1]<br/>class = Malignant>, fillcolor="#399de5"] ;
33 -> 34 ;
35 [label=<entropy = 0.0<br/>samples = 2<br/>value = [2, 0]<br/>class = Benign>, fillcolor="#e58139"] ;
33 -> 35 ;
36 [label=<entropy = 0.0<br/>samples = 1<br/>value = [0, 1]<br/>class = Malignant>, fillcolor="#399de5"] ;
30 -> 36 ;
37 [label=<BN &le; 7.017<br/>entropy = 0.728<br/>samples = 69<br/>value = [14, 55]<br/>class = Malignant>, fillcolor="#6bb6ec"] ;
29 -> 37 ;
38 [label=<UCShape &le; 2.984<br/>entropy = 0.963<br/>samples = 31<br/>value = [12, 19]<br/>class = Malignant>, fillcolor="#b6dbf5"] ;
37 -> 38 ;
39 [label=<BC &le; 1.708<br/>entropy = 0.811<br/>samples = 8<br/>value = [6, 2]<br/>class = Benign>, fillcolor="#eeab7b"] ;
38 -> 39 ;
40 [label=<entropy = 0.0<br/>samples = 1<br/>value = [0, 1]<br/>class = Malignant>, fillcolor="#399de5"] ;
39 -> 40 ;
41 [label=<BC &le; 3.046<br/>entropy = 0.592<br/>samples = 7<br/>value = [6, 1]<br/>class = Benign>, fillcolor="#e9965a"] ;
39 -> 41 ;
42 [label=<entropy = 0.0<br/>samples = 6<br/>value = [6, 0]<br/>class = Benign>, fillcolor="#e58139"] ;
41 -> 42 ;
43 [label=<entropy = 0.0<br/>samples = 1<br/>value = [0, 1]<br/>class = Malignant>, fillcolor="#399de5"] ;
41 -> 43 ;
44 [label=<UCSize &le; 3.496<br/>entropy = 0.828<br/>samples = 23<br/>value = [6, 17]<br/>class = Malignant>, fillcolor="#7fc0ee"] ;
38 -> 44 ;
45 [label=<CT &le; 3.206<br/>entropy = 0.567<br/>samples = 15<br/>value = [2, 13]<br/>class = Malignant>, fillcolor="#57ace9"] ;
44 -> 45 ;
46 [label=<CT &le; 2.487<br/>entropy = 1.0<br/>samples = 2<br/>value = [1, 1]<br/>class = Benign>, fillcolor="#ffffff"] ;
45 -> 46 ;
47 [label=<entropy = 0.0<br/>samples = 1<br/>value = [0, 1]<br/>class = Malignant>, fillcolor="#399de5"] ;
46 -> 47 ;
48 [label=<entropy = 0.0<br/>samples = 1<br/>value = [1, 0]<br/>class = Benign>, fillcolor="#e58139"] ;
46 -> 48 ;
49 [label=<NN &le; 5.411<br/>entropy = 0.391<br/>samples = 13<br/>value = [1, 12]<br/>class = Malignant>, fillcolor="#49a5e7"] ;
45 -> 49 ;
50 [label=<entropy = 0.0<br/>samples = 7<br/>value = [0, 7]<br/>class = Malignant>, fillcolor="#399de5"] ;
49 -> 50 ;
51 [label=<entropy = 0.65<br/>samples = 6<br/>value = [1, 5]<br/>class = Malignant>, fillcolor="#61b1ea"] ;
49 -> 51 ;
52 [label=<CT &le; 6.98<br/>entropy = 1.0<br/>samples = 8<br/>value = [4, 4]<br/>class = Benign>, fillcolor="#ffffff"] ;
44 -> 52 ;
53 [label=<BN &le; 5.176<br/>entropy = 0.811<br/>samples = 4<br/>value = [3, 1]<br/>class = Benign>, fillcolor="#eeab7b"] ;
52 -> 53 ;
54 [label=<entropy = 0.0<br/>samples = 3<br/>value = [3, 0]<br/>class = Benign>, fillcolor="#e58139"] ;
53 -> 54 ;
55 [label=<entropy = 0.0<br/>samples = 1<br/>value = [0, 1]<br/>class = Malignant>, fillcolor="#399de5"] ;
53 -> 55 ;
56 [label=<BN &le; 5.932<br/>entropy = 0.811<br/>samples = 4<br/>value = [1, 3]<br/>class = Malignant>, fillcolor="#7bbeee"] ;
52 -> 56 ;
57 [label=<entropy = 0.0<br/>samples = 3<br/>value = [0, 3]<br/>class = Malignant>, fillcolor="#399de5"] ;
56 -> 57 ;
58 [label=<entropy = 0.0<br/>samples = 1<br/>value = [1, 0]<br/>class = Benign>, fillcolor="#e58139"] ;
56 -> 58 ;
59 [label=<MA &le; 4.643<br/>entropy = 0.297<br/>samples = 38<br/>value = [2, 36]<br/>class = Malignant>, fillcolor="#44a2e6"] ;
37 -> 59 ;
60 [label=<entropy = 0.0<br/>samples = 18<br/>value = [0, 18]<br/>class = Malignant>, fillcolor="#399de5"] ;
59 -> 60 ;
61 [label=<SECSize &le; 6.485<br/>entropy = 0.469<br/>samples = 20<br/>value = [2, 18]<br/>class = Malignant>, fillcolor="#4fa8e8"] ;
59 -> 61 ;
62 [label=<Mitoses &le; 1.719<br/>entropy = 0.297<br/>samples = 19<br/>value = [1, 18]<br/>class = Malignant>, fillcolor="#44a2e6"] ;
61 -> 62 ;
63 [label=<entropy = 0.0<br/>samples = 11<br/>value = [0, 11]<br/>class = Malignant>, fillcolor="#399de5"] ;
62 -> 63 ;
64 [label=<BC &le; 3.107<br/>entropy = 0.544<br/>samples = 8<br/>value = [1, 7]<br/>class = Malignant>, fillcolor="#55abe9"] ;
62 -> 64 ;
65 [label=<entropy = 1.0<br/>samples = 2<br/>value = [1, 1]<br/>class = Benign>, fillcolor="#ffffff"] ;
64 -> 65 ;
66 [label=<entropy = 0.0<br/>samples = 6<br/>value = [0, 6]<br/>class = Malignant>, fillcolor="#399de5"] ;
64 -> 66 ;
67 [label=<entropy = 0.0<br/>samples = 1<br/>value = [1, 0]<br/>class = Benign>, fillcolor="#e58139"] ;
61 -> 67 ;
68 [label=<BC &le; 5.749<br/>entropy = 0.102<br/>samples = 151<br/>value = [2, 149]<br/>class = Malignant>, fillcolor="#3c9ee5"] ;
28 -> 68 ;
69 [label=<BN &le; 9.046<br/>entropy = 0.242<br/>samples = 50<br/>value = [2, 48]<br/>class = Malignant>, fillcolor="#41a1e6"] ;
68 -> 69 ;
70 [label=<Mitoses &le; 2.108<br/>entropy = 0.402<br/>samples = 25<br/>value = [2, 23]<br/>class = Malignant>, fillcolor="#4aa6e7"] ;
69 -> 70 ;
71 [label=<UCSize &le; 9.497<br/>entropy = 0.567<br/>samples = 15<br/>value = [2, 13]<br/>class = Malignant>, fillcolor="#57ace9"] ;
70 -> 71 ;
72 [label=<UCSize &le; 8.483<br/>entropy = 0.722<br/>samples = 10<br/>value = [2, 8]<br/>class = Malignant>, fillcolor="#6ab6ec"] ;
71 -> 72 ;
73 [label=<CT &le; 6.801<br/>entropy = 0.503<br/>samples = 9<br/>value = [1, 8]<br/>class = Malignant>, fillcolor="#52a9e8"] ;
72 -> 73 ;
74 [label=<entropy = 0.918<br/>samples = 3<br/>value = [1, 2]<br/>class = Malignant>, fillcolor="#9ccef2"] ;
73 -> 74 ;
75 [label=<entropy = 0.0<br/>samples = 6<br/>value = [0, 6]<br/>class = Malignant>, fillcolor="#399de5"] ;
73 -> 75 ;
76 [label=<entropy = 0.0<br/>samples = 1<br/>value = [1, 0]<br/>class = Benign>, fillcolor="#e58139"] ;
72 -> 76 ;
77 [label=<entropy = 0.0<br/>samples = 5<br/>value = [0, 5]<br/>class = Malignant>, fillcolor="#399de5"] ;
71 -> 77 ;
78 [label=<entropy = 0.0<br/>samples = 10<br/>value = [0, 10]<br/>class = Malignant>, fillcolor="#399de5"] ;
70 -> 78 ;
79 [label=<entropy = 0.0<br/>samples = 25<br/>value = [0, 25]<br/>class = Malignant>, fillcolor="#399de5"] ;
69 -> 79 ;
80 [label=<entropy = 0.0<br/>samples = 101<br/>value = [0, 101]<br/>class = Malignant>, fillcolor="#399de5"] ;
68 -> 80 ;
}